{"weights": [[[-0.7221993114299153, -0.15271454031662907, -0.12295994361259788, 0.14760870230689008], [0.566262440594852, 0.1442381432933662, -0.43763415861780136, 0.2427135615593568], [0.47881298848809845, 0.15184298461424678, -0.1408975352857691, -0.10514957878507361], [-0.7515434869381357, 0.014804838230278516, 0.2362927608789943, -0.24060780379087318], [-0.36531237359451174, 0.3542248157192599, -0.16314543037218285, 0.06543222253958933], [0.4926426869523844, 0.4160605067648451, -0.2040394726641826, 0.05876174215005464], [-0.5220816541598635, -0.5970637518580758, -0.4578658364080451, -0.43653007898512475], [0.175325080736509, 0.2745432194639457, 0.5102142331736098, 0.30251990668545803], [-0.051107221999785436, 0.07795861324492483, 0.30137356752432504, 0.027553893238767023], [0.3495121900041789, -0.14542538184336337, 0.14911391420381684, -0.23476566096348428]], [[-0.09779547269965815, -0.12645984322678766, 0.11266505006272236, -0.07154069921308583, -0.11386138166849338, -0.037150477718831884, 0.09207886843560263, 0.2128162744303314, 0.04700656528358892, 0.0574965583102583], [-0.24669692220234785, -0.25867504836642974, 0.18915266656047763, 0.03346362635411252, -0.1024466304997851, -0.0021810879505159944, 0.36962899298253343, -0.055021265312995865, 0.01232038914402409, 0.04885095270936231], [0.09643472602273691, 0.17582709595317741, 0.1319749630243613, 0.0441147942790481, 0.10223959645641953, 0.15530421559389845, -0.11107646779094164, 0.11494853985009063, 0.03469187090950081, -0.02189075214963224], [-0.032097321757526366, -0.008797327889161804, -0.03364332454196555, 0.010368706862682237, 0.052387178754846594, -0.07428390850190039, -0.09718339116923705, -0.07422879580279174, -0.038468459758828934, -0.022479532679237385], [-0.25235069994604165, 0.4240232699704377, -0.023830185615994114, -0.1164117374874928, -0.048375679447072675, 0.347948447941753, 0.313754517916093, 0.20893224449263983, -0.13481005921188607, 0.24417149729664558], [0.21356014400096804, -0.08508808039804332, -0.255525302533161, 0.4943800743010853, -0.15630739906417457, -0.23575108018548713, 0.35954548953191795, -0.05903389816963339, 0.11632974904525141, 0.1615394916245868], [0.19143206199416682, -0.13641102379905845, -0.1964107705783412, 0.1749138322608209, 0.3537434135424095, -0.2185132052303406, 0.1363133186162795, -0.18209286435275637, 0.24018982105583128, 0.0025199193745681888], [-0.10531013386351042, 0.3778691553139841, 0.16355955446875217, -0.10300361070597207, 0.03877430679197391, 0.13799173630267417, -0.0545819782873318, 0.1405079979884106, 0.017453540751440115, 0.11292934184786693], [0.2150184488690457, 0.23409849341178254, -0.12817055280584685, 0.3123542070676824, 0.06589648656752341, -0.13037243684773636, 0.03250366854894338, 0.036031829380160224, 0.18924645723400085, -0.3311935387608414], [0.1263138525142141, 0.043932585741332755, -0.09357195362418921, 0.15643884862487598, -0.22115925095713723, -0.17934465895023774, 0.3704820759853454, -0.09940264393079085, 0.009024082162076074, -0.11597070816509551]], [[-0.18050177409091508, -0.11040597924916719, 0.15077520303702857, -0.034566593287684556, -0.004841464871301062, 0.3763017248388736, 0.1279556649916716, 0.02626064977504014, 0.216365252445707, 0.17721830750524709], [-0.1563236320668347, 0.16149528440164945, -0.0768523850190205, 0.03177303511220681, 0.32866880807052823, 0.060873206383316426, -0.09959463329251457, 0.371049572768726, -0.22423896822457062, -0.008374258506470488], [0.19928145138229883, 0.21643476535746684, 0.05448221081902756, 0.06597937456695618, 0.3381728960569903, -0.06560877006396694, -0.1406864728106679, 0.4492119291254985, -0.17245389109230636, -0.1497711968804229], [-0.036297555030367815, -0.261255841059266, 0.08941678380466392, -0.07486106583005836, -0.027839338591679866, 0.3492906377707317, 0.321629948353783, -0.4392593975465044, 0.17923324164161533, 0.3472928544608357], [0.12728711792698755, -0.1884496045406735, -0.034584155129496676, -0.06720419157001495, -0.29550361321856716, 0.4437521938226768, 0.41906272366442704, 0.09984181121986498, 0.35203370008991863, 0.24885053576872776], [0.10657272017124897, 0.1481302883400364, -0.0034644570661173067, 0.025700124690538003, 0.020867570905056605, -0.08616251214983149, -0.1692812296123219, 0.19713567198681908, -0.07072199957374363, -0.044923976878415116], [-0.1080253268897229, 0.008788638885927564, 0.11917656149748897, 0.056828173804027896, -0.10675235492873442, -0.14156196169782154, -0.06782002924372124, 0.45772511505153285, -0.01381534679139474, -0.41851332392506435], [0.04588339858763419, 0.07479908459909536, -0.09427190836505575, -0.0012673205586884722, 0.006604804800945465, 0.21204737646289135, -0.019886741318488478, -0.03268530763617615, -0.01886259348456968, 0.10929245611490115], [0.27328430176848434, 0.18654055513403792, 0.36956567105105853, 0.04513874298597659, 0.38731366329926487, 0.03410806925374273, -0.25235636921015286, 0.04644736441319452, -0.23834121565983765, -0.18891433008721562], [-0.004301563738158684, 0.007148471641142666, -0.0008950168845287648, -2.753970830270176e-05, -0.002322012881348366, -0.001983670376160832, -0.00037994274938194065, -0.00205501216968396, -0.0027295243948435776, -0.001430763962648392]], [[0.23358850266059755, -0.251792773010906, -0.38174386046187164, 0.4570773787398746, 0.37849919623679507, -0.1763965258002845, -0.3847477130756581, -0.2351895067573569, -0.2933953347551701, -0.007538807692100023]]], "biases": [[[-0.09576638361084697], [0.10586240213953893], [-0.0109095607537205], [-0.07134419311074376], [0.12047460247192472], [0.16463694221316783], [0.014671184605982863], [-0.05687815319181433], [0.1024672723272776], [0.2573448432043445]], [[0.1693618096515137], [0.05172046343407516], [0.21151476749618722], [0.03878502187384171], [0.09853439760614262], [0.09349731688754662], [0.22074600770252384], [0.11401873021480428], [-0.03808399368828145], [0.010739254132713412]], [[-0.02898294423073797], [0.09114474073912411], [0.14443892013571194], [0.22943760899047286], [0.14789950147458442], [0.16092769856427191], [0.08142928099263216], [-0.07166846305268361], [0.08677857739517293], [-0.006910068947918938]], [[0.0054651664607572184]]]}